{
  "input_nodes": 5,
  "hidden_nodes": 8,
  "output_nodes": 2,
  "weights_ih": {
    "rows": 8,
    "cols": 5,
    "data": [
      [
        -0.7205061535481816,
        0.4052935027813658,
        0.6734355148717937,
        0.05629369886846902,
        -0.027346330257363327
      ],
      [
        0.5136979171508687,
        0.11083703075028417,
        0.1848511325884834,
        0.9323613483622197,
        -0.8642183676135349
      ],
      [
        -0.045780751775977624,
        0.6863295723234896,
        -0.8297965846462851,
        -0.16905445176649736,
        -0.5688867862680058
      ],
      [
        -0.2797864288429408,
        0.7564188352085077,
        -0.05086803067137158,
        -0.9078011400678377,
        -0.20526201853249493
      ],
      [
        0.04257248143023551,
        0.18515192668388725,
        0.17555344544435725,
        -0.39970128507022595,
        -0.35716139441143824
      ],
      [
        0.6850623573920878,
        -0.3011949392579547,
        0.7804750028470195,
        -0.7911845145908769,
        -0.737987316369292
      ],
      [
        -0.06702153725157745,
        -1.4875847588265219,
        -0.42887803544455183,
        -0.05774732305583807,
        -0.4307764830393497
      ],
      [
        -0.13642493001560574,
        -0.3240910909887931,
        0.560657262620448,
        -0.8008602780953056,
        0.7340400249654193
      ]
    ]
  },
  "weights_ho": {
    "rows": 2,
    "cols": 8,
    "data": [
      [
        -0.6013875086292937,
        -0.6959016843594124,
        0.6030649774192396,
        -0.5712461795316095,
        -0.987820868965342,
        0.06785124517478636,
        -0.13820149802128956,
        -0.10718427164995692
      ],
      [
        0.2024768645730708,
        0.9413361733924708,
        0.9103509383900095,
        0.4038138221389096,
        -0.675065204865779,
        0.5523256041899578,
        0.9500174734265543,
        -0.2912725455853762
      ]
    ]
  },
  "bias_h": {
    "rows": 8,
    "cols": 1,
    "data": [
      [
        0.3844919373327862
      ],
      [
        0.9103265097564477
      ],
      [
        0.116094540275546
      ],
      [
        -0.8884421697657632
      ],
      [
        0.9165197515810326
      ],
      [
        -0.8951358883812142
      ],
      [
        -1.4352598743363214
      ],
      [
        0.30588666616511784
      ]
    ]
  },
  "bias_o": {
    "rows": 2,
    "cols": 1,
    "data": [
      [
        0.35093594654803795
      ],
      [
        -0.09885490631656824
      ]
    ]
  },
  "learning_rate": 0.1,
  "activation_function": {}
}
